35 24
4 0.0880893 0.00025401 0.161587 0.0691591 0.100796 -0.0479286 -0.19734 -0.0995328 -0.0469836 -0.170479 -0.0461142 -0.00996341 0.0810328 0.0816849 0.070672 0.155337 -0.111604 -0.0501433 -0.0344887 0.00347829 0.0513955 0.108578 0.0683417 0.0922684
8 0.0571522 0.00581877 0.0884662 0.053341 0.054138 -0.0103613 -0.0845736 -0.0297697 -0.00807586 -0.0641969 -0.0293836 0.0104396 0.0247493 0.0309936 0.0385027 0.0972332 -0.0762509 -0.0105388 -0.0193045 -0.0270353 0.0216416 0.0479379 0.0363866 0.070019
0 0.299972 -0.0346874 0.541389 0.205896 0.286974 -0.11134 -0.533123 -0.277519 -0.106837 -0.481997 -0.177181 -0.0675597 0.263309 0.266955 0.111965 0.476807 -0.338373 -0.163003 -0.123847 -0.0409623 0.164755 0.238165 0.172558 0.350307
17 0.126584 -0.052767 0.273635 0.107304 0.157641 -0.0744369 -0.300037 -0.119528 -0.0862113 -0.279014 -0.115162 -0.0476225 0.137355 0.136956 0.0642783 0.26875 -0.186364 -0.0902061 -0.0397149 -0.0307182 0.0934526 0.14171 0.116002 0.194402
25 0.0945259 -0.0223748 0.160429 0.0902208 0.0705312 -0.033359 -0.155977 -0.0773341 -0.0473809 -0.156274 -0.0425003 -0.0273696 0.0907034 0.076433 0.0436593 0.181984 -0.0943486 -0.065746 -0.0517895 -0.0237935 0.071257 0.0734124 0.0430861 0.113359
32 0.176395 -0.0450735 0.371667 0.145629 0.167644 -0.0763548 -0.346251 -0.207805 -0.0688229 -0.349616 -0.097477 -0.0171839 0.157546 0.184846 0.110409 0.345428 -0.235201 -0.11843 -0.0749956 -0.00317013 0.0879052 0.160559 0.138541 0.202568
33 0.262272 -0.0338979 0.460239 0.212599 0.267798 -0.0896723 -0.468352 -0.282426 -0.132796 -0.431565 -0.143276 -0.0580329 0.232554 0.219531 0.103671 0.460081 -0.2742 -0.142699 -0.0770939 -0.0351356 0.13367 0.20805 0.131735 0.305962
19 0.0604179 -0.0235283 0.0974891 0.0300702 0.0685023 -0.0303384 -0.120799 -0.0545163 -0.0315956 -0.128368 -0.0263045 -0.00334278 0.0436094 0.0599111 0.0097026 0.124497 -0.0623057 -0.0509536 -0.0278766 -0.0199986 0.0314692 0.0344356 0.051915 0.0642291
34 0.247862 -0.102048 0.577589 0.247935 0.309772 -0.147379 -0.557417 -0.242322 -0.130051 -0.471795 -0.201298 -0.046139 0.270004 0.207962 0.184486 0.499726 -0.383488 -0.157843 -0.0746847 -0.0471967 0.190764 0.29802 0.218251 0.325804
14 0.0831139 -0.0141301 0.189632 0.0940178 0.102953 -0.0205615 -0.207569 -0.104315 -0.0339607 -0.179012 -0.0471442 -0.0163413 0.107974 0.111111 0.0599769 0.177751 -0.119916 -0.0763565 -0.056578 -0.00222668 0.0528847 0.077639 0.0529425 0.13357
22 0.0330662 -0.0102505 0.100778 0.0607493 0.0715358 -0.027093 -0.107669 -0.0339692 -0.0125606 -0.0766997 -0.0246497 0.00205866 0.0385307 0.0445442 0.0192868 0.0744646 -0.061761 -0.0121745 -0.0300075 -0.0294124 0.037503 0.0531444 0.0314087 0.0667729
21 0.0638971 0.0122786 0.0865701 0.0452947 0.0591719 -0.0354125 -0.0867447 -0.0526509 -0.0274801 -0.110018 -0.0241807 -0.00264117 0.0368947 0.0330478 0.0324436 0.0902067 -0.0635304 -0.0388521 -0.0315619 -0.0240364 0.0153127 0.051486 0.0224303 0.0740038
3 0.0905571 -0.00502257 0.223605 0.0890567 0.105947 -0.0571052 -0.224337 -0.0945232 -0.0581741 -0.217715 -0.0738164 -0.00532752 0.0986935 0.0875854 0.057709 0.224178 -0.16211 -0.0528062 -0.0508191 -0.0245576 0.0685136 0.117738 0.0754138 0.120781
26 0.107046 -0.00723136 0.193723 0.06637 0.0927322 -0.0315449 -0.191791 -0.119329 -0.0614158 -0.199114 -0.0732993 -0.0146881 0.115743 0.0861036 0.0600001 0.211175 -0.137139 -0.0694599 -0.0265948 -0.0278164 0.0773344 0.100504 0.0772002 0.115973
28 0.106856 -0.00604739 0.212905 0.0956496 0.114349 -0.0373489 -0.20913 -0.124383 -0.0467189 -0.200743 -0.0541494 -0.0277634 0.0801248 0.094131 0.0621086 0.188273 -0.133552 -0.0539837 -0.0430326 -0.0268201 0.0412336 0.0826728 0.0574031 0.120193
12 0.00967725 -0.011431 0.0463079 0.00775195 0.0271801 -0.0215375 -0.0342565 -0.0207819 -0.0144993 -0.00968714 -0.00704701 -0.0138543 7.24964e-05 -0.00704252 0.00858101 0.0224285 -0.0431731 -0.00173195 -0.0220179 -0.0152631 0.0158809 0.0386473 0.0297145 0.0264212
18 0.0493353 -0.0164557 0.068086 0.0457144 0.0455967 -0.0346474 -0.0913983 -0.0506842 -0.0278822 -0.0562842 -0.0415195 -0.024315 0.0165683 0.0165634 0.0180199 0.0476168 -0.0336893 -0.00609948 0.00414435 -0.00056866 0.0167165 0.035803 0.0097093 0.0642763
10 0.0479688 0.00320074 0.0778394 0.0443117 0.032189 0.0038928 -0.0757455 -0.0241444 -0.0321014 -0.0801522 -0.0120879 -0.0232791 0.051879 0.0533185 0.0261049 0.0551452 -0.0627714 -0.00366743 -0.0139933 0.0114418 0.031305 0.0191836 0.0327324 0.0296202
13 0.0576904 -0.035884 0.130015 0.0290183 0.0479284 -0.0472567 -0.126713 -0.0549853 -0.0407575 -0.0847053 -0.0218384 0.00971319 0.0543327 0.0597054 0.012889 0.0824648 -0.0788339 -0.0278162 -0.014036 -0.000520472 0.025316 0.0674967 0.0575598 0.0841408
9 0.0785792 -0.034484 0.175472 0.068578 0.114203 -0.0287791 -0.166277 -0.0899248 -0.0595746 -0.190458 -0.0662757 -0.0141268 0.0781826 0.105458 0.0367392 0.17127 -0.131472 -0.0740436 -0.0402716 -0.00034089 0.0549659 0.0775737 0.0437725 0.103051
5 0.087971 -0.0307053 0.17982 0.0456127 0.0892084 -0.020445 -0.156759 -0.0984276 -0.033878 -0.133067 -0.0454475 -0.00513953 0.0879531 0.0714362 0.0257859 0.157563 -0.0924846 -0.0585872 -0.0491834 -0.0191634 0.0420588 0.0932662 0.0715593 0.0877933
11 0.044372 -0.0304747 0.0984489 0.0549828 0.0615339 -0.0486324 -0.122992 -0.0448436 -0.0211668 -0.117581 -0.0283085 0.000468636 0.057575 0.0518884 0.04965 0.122769 -0.0911877 -0.0144652 -0.0333761 -0.0290863 0.0607656 0.0450263 0.0309082 0.088157
7 0.133223 -0.0488593 0.283129 0.0919726 0.152185 -0.041859 -0.27417 -0.141049 -0.0624102 -0.237972 -0.0823084 -0.020216 0.129895 0.117719 0.0946681 0.236622 -0.18594 -0.0667198 -0.0477247 -0.0375481 0.0885518 0.132603 0.0759617 0.159556
6 0.0602675 -0.0108752 0.184289 0.0696371 0.0911338 -0.0372839 -0.183867 -0.0989964 -0.022642 -0.153422 -0.033276 -0.0190508 0.0721248 0.0786772 0.056491 0.164408 -0.0991521 -0.0385506 -0.0221786 -0.0270428 0.058482 0.0755418 0.0415754 0.115819
16 0.0401448 -0.0216316 0.0905429 0.0319375 0.0657717 -0.0405963 -0.0883317 -0.0496023 -0.0217649 -0.105131 -0.0403675 -0.00900416 0.0343626 0.0622746 0.0447001 0.079428 -0.073148 -0.0480101 -0.0336989 -0.00518369 0.0377141 0.0351162 0.0525734 0.0785759
31 0.0622596 -0.00509413 0.113326 0.0741441 0.0726751 -0.0324996 -0.111426 -0.0827432 -0.04519 -0.116156 -0.0309156 -0.0307067 0.0622853 0.0576021 0.0304108 0.109511 -0.0655296 -0.0462291 -0.0404989 -0.0182875 0.018278 0.0560068 0.0582207 0.0782076
27 0.0722455 0.00319851 0.113297 0.0536424 0.0587068 -0.0180739 -0.148319 -0.0666451 -0.0327028 -0.139487 -0.0420208 -0.0215156 0.0680421 0.0418758 0.0280389 0.135729 -0.0665334 -0.0212724 -0.0188503 -0.0173456 0.0385254 0.0842524 0.0657627 0.0909465
2 0.0939039 -0.0187107 0.168858 0.0649565 0.0731108 -0.0319748 -0.180958 -0.0754812 -0.025763 -0.148568 -0.0497416 -0.0283345 0.0888494 0.0960955 0.0567141 0.171053 -0.123145 -0.0457891 -0.0251046 -0.00254986 0.0672888 0.0855587 0.0794455 0.0917756
20 0.064085 -0.0165576 0.126577 0.0432775 0.0825856 -0.0107317 -0.127042 -0.071727 -0.0402349 -0.106116 -0.0419797 -0.0291799 0.0648606 0.0766194 0.0193325 0.138026 -0.0945973 -0.0397101 -0.00564803 0.0105423 0.0291657 0.0700322 0.0519361 0.0721452
24 0.0456442 0.00678492 0.143779 0.0681747 0.0739324 -0.0352158 -0.10506 -0.0860228 -0.0393775 -0.100385 -0.0340308 -0.0183221 0.0743613 0.0545687 0.029589 0.115624 -0.0920189 -0.036048 -0.00878104 0.0103333 0.021377 0.0750663 0.0406018 0.0822948
1 0.0914438 -0.0272196 0.189133 0.0516337 0.0781815 -0.047922 -0.159516 -0.0742637 -0.0381539 -0.149747 -0.0373307 0.00431928 0.061661 0.058644 0.0399205 0.171232 -0.104654 -0.0402817 -0.0368248 -0.0165718 0.0539745 0.101644 0.060003 0.0892335
15 0.0584594 -0.0236412 0.118416 0.0608276 0.0673403 -0.0205672 -0.0850205 -0.0691931 -0.0413993 -0.0944441 -0.0120666 0.0073118 0.0690721 0.070297 0.0419983 0.110754 -0.0625755 -0.0335705 -0.0163175 0.0154564 0.031417 0.0497214 0.0349034 0.045625
23 0.0415737 -0.0285793 0.137952 0.0634433 0.0449341 -0.0149345 -0.129585 -0.0776213 -0.0259646 -0.100187 -0.0420341 -0.0220339 0.055045 0.0479805 0.0410584 0.107263 -0.0814935 -0.0459323 -0.0251265 0.0119274 0.027917 0.0655056 0.0196399 0.0876381
29 0.0874882 -0.0103238 0.166498 0.0490316 0.0717019 -0.0277798 -0.159217 -0.0946013 -0.0556146 -0.127529 -0.0610342 -0.00900103 0.0694322 0.0690328 0.0311045 0.128089 -0.101295 -0.0523378 -0.0334546 0.0122398 0.0519935 0.0618627 0.06331 0.0705917
30 0.118514 0.00166611 0.213516 0.0795312 0.106719 -0.0463182 -0.196911 -0.121676 -0.0638919 -0.222363 -0.0721992 -0.0379476 0.120761 0.10221 0.0534467 0.19176 -0.123174 -0.0582209 -0.048409 -0.000976867 0.0785038 0.090681 0.0587833 0.148838
